digraph Tree {
node [shape=box, style="filled, rounded", color="black", fontname=helvetica] ;
edge [fontname=helvetica] ;
0 [label="petal length (cm) <= 2.45\ngini = 0.64\nsamples = 96\nvalue = [63, 31, 56]\nclass = setosa", fillcolor="#fdf6f0"] ;
1 [label="gini = 0.0\nsamples = 35\nvalue = [63, 0, 0]\nclass = setosa", fillcolor="#e58139"] ;
0 -> 1 [labeldistance=2.5, labelangle=45, headlabel="True"] ;
2 [label="petal width (cm) <= 1.55\ngini = 0.46\nsamples = 61\nvalue = [0, 31, 56]\nclass = virginica", fillcolor="#c7a7f3"] ;
0 -> 2 [labeldistance=2.5, labelangle=-45, headlabel="False"] ;
3 [label="petal width (cm) <= 1.45\ngini = 0.16\nsamples = 24\nvalue = [0, 31, 3]\nclass = versicolor", fillcolor="#4ce88d"] ;
2 -> 3 ;
4 [label="gini = 0.0\nsamples = 20\nvalue = [0, 28, 0]\nclass = versicolor", fillcolor="#39e581"] ;
3 -> 4 ;
5 [label="petal length (cm) <= 4.85\ngini = 0.5\nsamples = 4\nvalue = [0, 3, 3]\nclass = versicolor", fillcolor="#ffffff"] ;
3 -> 5 ;
6 [label="gini = 0.0\nsamples = 2\nvalue = [0, 3, 0]\nclass = versicolor", fillcolor="#39e581"] ;
5 -> 6 ;
7 [label="gini = 0.0\nsamples = 2\nvalue = [0, 0, 3]\nclass = virginica", fillcolor="#8139e5"] ;
5 -> 7 ;
8 [label="gini = 0.0\nsamples = 37\nvalue = [0, 0, 53]\nclass = virginica", fillcolor="#8139e5"] ;
2 -> 8 ;
}